Language model created by QuickLM on Mon Dec 28 19:46:08 EST 2015
Copyright (c) 1996-2010 Carnegie Mellon University and Alexander I. Rudnicky

The model is in standard ARPA format, designed by Doug Paul while he was at MITRE.

The code that was used to produce this language model is available in Open Source.
Please visit http://www.speech.cs.cmu.edu/tools/ for more information

The (fixed) discount mass is 0.5. The backoffs are computed using the ratio method.
This model based on a corpus of 3 sentences and 9 words

\data\
ngram 1=9
ngram 2=10
ngram 3=7

\1-grams:
-0.9379 </s> -0.3010
-0.9379 <s> -0.2478
-1.4150 A -0.2840
-1.4150 DEMO -0.2840
-1.4150 JOKE -0.2478
-1.4150 ME -0.2840
-1.4150 MODE -0.2478
-1.4150 RESTART -0.2478
-1.4150 TELL -0.2840

\2-grams:
-0.7782 <s> DEMO 0.0000
-0.7782 <s> RESTART 0.0000
-0.7782 <s> TELL 0.0000
-0.3010 A JOKE 0.0000
-0.3010 DEMO MODE 0.0000
-0.3010 JOKE </s> -0.3010
-0.3010 ME A 0.0000
-0.3010 MODE </s> -0.3010
-0.3010 RESTART </s> -0.3010
-0.3010 TELL ME 0.0000

\3-grams:
-0.3010 <s> DEMO MODE
-0.3010 <s> RESTART </s>
-0.3010 <s> TELL ME
-0.3010 A JOKE </s>
-0.3010 DEMO MODE </s>
-0.3010 ME A JOKE
-0.3010 TELL ME A

\end\
