Language model created by QuickLM on Mon Dec 28 16:27:26 EST 2015
Copyright (c) 1996-2010 Carnegie Mellon University and Alexander I. Rudnicky

The model is in standard ARPA format, designed by Doug Paul while he was at MITRE.

The code that was used to produce this language model is available in Open Source.
Please visit http://www.speech.cs.cmu.edu/tools/ for more information

The (fixed) discount mass is 0.5. The backoffs are computed using the ratio method.
This model based on a corpus of 12 sentences and 14 words

\data\
ngram 1=14
ngram 2=24
ngram 3=12

\1-grams:
-0.7782 </s> -0.3010
-0.7782 <s> -0.2218
-1.8573 EIGHT -0.2218
-1.8573 ELEVEN -0.2218
-1.8573 FIVE -0.2218
-1.8573 FOUR -0.2218
-1.8573 NINE -0.2218
-1.8573 ONE -0.2218
-1.8573 SEVEN -0.2218
-1.8573 SIX -0.2218
-1.8573 TEN -0.2218
-1.8573 THREE -0.2218
-1.8573 TWO -0.2218
-1.8573 ZERO -0.2218

\2-grams:
-1.3802 <s> EIGHT 0.0000
-1.3802 <s> ELEVEN 0.0000
-1.3802 <s> FIVE 0.0000
-1.3802 <s> FOUR 0.0000
-1.3802 <s> NINE 0.0000
-1.3802 <s> ONE 0.0000
-1.3802 <s> SEVEN 0.0000
-1.3802 <s> SIX 0.0000
-1.3802 <s> TEN 0.0000
-1.3802 <s> THREE 0.0000
-1.3802 <s> TWO 0.0000
-1.3802 <s> ZERO 0.0000
-0.3010 EIGHT </s> -0.3010
-0.3010 ELEVEN </s> -0.3010
-0.3010 FIVE </s> -0.3010
-0.3010 FOUR </s> -0.3010
-0.3010 NINE </s> -0.3010
-0.3010 ONE </s> -0.3010
-0.3010 SEVEN </s> -0.3010
-0.3010 SIX </s> -0.3010
-0.3010 TEN </s> -0.3010
-0.3010 THREE </s> -0.3010
-0.3010 TWO </s> -0.3010
-0.3010 ZERO </s> -0.3010

\3-grams:
-0.3010 <s> EIGHT </s>
-0.3010 <s> ELEVEN </s>
-0.3010 <s> FIVE </s>
-0.3010 <s> FOUR </s>
-0.3010 <s> NINE </s>
-0.3010 <s> ONE </s>
-0.3010 <s> SEVEN </s>
-0.3010 <s> SIX </s>
-0.3010 <s> TEN </s>
-0.3010 <s> THREE </s>
-0.3010 <s> TWO </s>
-0.3010 <s> ZERO </s>

\end\
